//Numpy array shape [1540, 2]
//Min -0.291832268238
//Max 0.287467062473
//Number of zeros 0

#ifndef W2_H_
#define W2_H_

#ifndef __SYNTHESIS__
model_default_t w2[3080];
#else
model_default_t w2[3080] = {0.0000013066, -0.0000003134, -0.0000041046, -0.0000000422, 0.0000016225, -0.0000031197, -0.0000001734, -0.0000001466, -0.0000002405, 0.0000017459, -0.0000017595, -0.0000010215, -0.0000024290, 0.0000023753, -0.0000013063, 0.0000014484, -0.0000006656, -0.0000015001, 0.0000029200, -0.0000057647, -0.0000008601, 0.0000035719, -0.0000022793, 0.0000042635, -0.0000008068, 0.0000005059, 0.0000033289, -0.0000029946, 0.0000034344, -0.0000035646, -0.0000036371, 0.0000035892, -0.0000016914, 0.0000003523, 0.0000006422, -0.0000014352, 0.0000025008, -0.0000010013, 0.0000019639, -0.0000035770, -0.0000075832, 0.0000062287, -0.0000000784, 0.0000014722, 0.0000022504, 0.0000001081, 0.0000034454, -0.0000069899, -0.0000024659, 0.0000034635, -0.0000075734, 0.0000074527, 0.0000012142, -0.0000058362, 0.0000019514, -0.0000029317, -0.0000004844, 0.0000030464, -0.0000007141, 0.0000002296, -0.0000004048, 0.0000010875, 0.0000000431, 0.0000011506, -0.0000027756, 0.0000021391, -0.0000000443, -0.0000000436, 0.0000014310, 0.0000008952, -0.0000041582, 0.0000044327, -0.0000004486, -0.0000017089, 0.0000000176, -0.0000045610, -0.0000016335, 0.0000003841, -0.0000009224, -0.0000015912, 0.0000001920, 0.0000030302, -0.0000014491, 0.0000037453, -0.0000069156, 0.0000061846, 0.0000008146, -0.0000014499, -0.0000016361, 0.0000014137, -0.0000037973, 0.0000013863, -0.0000026371, 0.0000027942, 0.0000029871, -0.0000012153, 0.0000004512, -0.0000007688, -0.0000003407, 0.0000039243, -0.0000041744, 0.0000064904, 0.0000019088, 0.0000039760, -0.0000006033, 0.0000003484, 0.0000048405, -0.0000010722, -0.0000055078, 0.0000052523, -0.0000047882, 0.0000035893, 0.0000001008, 0.0000014416, 0.0000008438, -0.0000004301, -0.0000051919, 0.0000062995, -0.0000027996, 0.0000011586, -0.0000019923, 0.0000014494, 0.0000036489, -0.0000023983, -0.0000076738, 0.0000082618, 0.0000017744, -0.0000031701, 0.0000007085, -0.0000015589, -0.0000002735, 0.0000019088, -0.0000033879, 0.0000036976, 0.0000005095, -0.0000008863, -0.0000023927, 0.0000027205, -0.0000014802, 0.0000020722, 0.0000029708, 0.0000039704, 0.0000046213, -0.0000051281, -0.0000055179, 0.0000026357, -0.0000031789, 0.0000068720, -0.0000027224, 0.0000029509, 0.0000003132, -0.0000050147, -0.0000063616, 0.0000045921, -0.0000023850, 0.0000050876, -0.0000014764, 0.0000001922, 0.0000005475, 0.0000002056, -0.0000063652, 0.0000061211, 0.0000007649, -0.0000011380, -0.0000023400, -0.0000009124, -0.0000049938, 0.0000045375, -0.0000042261, 0.0000052935, -0.0000008050, 0.0000019343, -0.0000035200, 0.0000029952, -0.0000021265, 0.0000056864, -0.0000039221, 0.0000025254, 0.0000057807, -0.0000059705, -0.0000039358, 0.0000066828, -0.0000033282, 0.0000021238, -0.0000069051, 0.0000043110, 0.0000041502, -0.0000070773, -0.0000022599, 0.0000048168, 0.0000017772, 0.0000022004, -0.0000092461, 0.0000107084, 0.0000024811, -0.0000015457, -0.0000068983, 0.0000049189, 0.0000011577, -0.0000012183, -0.0000026592, 0.0000036098, 0.0000019884, -0.0000039317, -0.0000094803, 0.0000078515, 0.0000006444, -0.0000019777, -0.0000047298, 0.0000048924, -0.0000046181, -0.0000000894, -0.0000088191, 0.0000107537, 0.0000027129, -0.0000043892, -0.0000042637, 0.0000044750, -0.0000036023, 0.0000036598, -0.0000062197, 0.0000036208, 0.0000043182, -0.0000048642, -0.0000092273, 0.0000093085, -0.0000039077, 0.0000047509, -0.0000064259, 0.0000061191, 0.0000024950, -0.0000003180, -0.0000086126, 0.0000109884, 0.0000014449, -0.0000017704, -0.0000085206, 0.0000054899, -0.0000005624, 0.0000022171, -0.0000080777, 0.0000073016, 0.0000046898, -0.0000044681, -0.0000085557, 0.0000117161, -0.0000029732, 0.0000019735, -0.0000093576, 0.0000084972, 0.0000041646, -0.0000033993, -0.0000057326, 0.0000062198, -0.0000089940, 0.0000078033, -0.0000064461, 0.0000075648, 0.0000074126, -0.0000057538, -0.0000057261, 0.0000073404, -0.0000061745, 0.0000039331, -0.0000101133, 0.0000076895, 0.0000078394, -0.0000041460, -0.0000085656, 0.0000097348, -0.0000040512, -0.0000022097, -0.0000063576, 0.0000068490, -0.0000015395, -0.0000020159, -0.0000112703, 0.0000094693, 0.0000015850, -0.0000020546, -0.0000074555, 0.0000081011, -0.0000059565, 0.0000066633, -0.0000048958, 0.0000069054, 0.0000051701, -0.0000081810, -0.0000103762, 0.0000098976, -0.0000045583, 0.0000068973, -0.0000063953, 0.0000095252, 0.0000052053, -0.0000078920, -0.0000143906, 0.0000110588, -0.0000015353, 0.0000030805, -0.0000089823, 0.0000103299, 0.0000027406, -0.0000022237, -0.0000116894, 0.0000095978, 0.0000006427, -0.0000001963, -0.0000102506, 0.0000129101, 0.0000040332, 0.0000005802, -0.0000124402, 0.0000116015, 0.0000034146, -0.0000038220, -0.0000125459, 0.0000113760, -0.0000006993, -0.0000016943, -0.0000103747, 0.0000121000, 0.0000048713, -0.0000018481, -0.0000124099, 0.0000112290, -0.0000047528, 0.0000026346, -0.0000086837, 0.0000122617, 0.0000051124, -0.0000058444, -0.0000113362, 0.0000091624, 0.0000019235, 0.0000015741, -0.0000088229, 0.0000115080, 0.0000013526, -0.0000018182, -0.0000114028, 0.0000087196, -0.0000011043, 0.0000000909, -0.0000103338, 0.0000124954, 0.0000010936, -0.0000017665, -0.0000133050, 0.0000117571, -0.0000012762, 0.0000015890, -0.0000090489, 0.0000109404, 0.0000031597, -0.0000050673, -0.0000104015, 0.0000121255, 0.0000018276, 0.0000001529, -0.0000172039, 0.0000166694, 0.0000032625, -0.0000029322, -0.0000095750, 0.0000114365, 0.0000022990, -0.0000061606, -0.0000139802, 0.0000134085, 0.0000043633, -0.0000002327, -0.0000080888, 0.0000108009, 0.0000042683, -0.0000060040, -0.0000126479, 0.0000082234, -0.0000022857, 0.0000021711, -0.0000098473, 0.0000125844, 0.0000029711, -0.0000013906, -0.0000121654, 0.0000102854, 0.0000030433, -0.0000044307, -0.0000100918, 0.0000143026, 0.0000041789, -0.0000048543, -0.0000129445, 0.0000093841, 0.0000046874, -0.0000018677, -0.0000140620, 0.0000170408, 0.0000002702, -0.0000039363, -0.0000090398, 0.0000104736, 0.0000016814, -0.0000011627, -0.0000131022, 0.0000141844, 0.0000023668, -0.0000022146, -0.0000115947, 0.0000139264, 0.0000031341, -0.0000051089, -0.0000121548, 0.0000126151, -0.0000000729, -0.0000029091, -0.0000154853, 0.0000169646, 0.0000023485, -0.0000032342, -0.0000128146, 0.0000132624, 0.0000032123, -0.0000030639, -0.0000178176, 0.0000167425, 0.0000054110, -0.0000042279, -0.0000083871, 0.0000099265, 0.0000012737, 0.0000024675, -0.0000162989, 0.0000147755, 0.0000039429, -0.0000067003, -0.0000126052, 0.0000121519, -0.0000001025, 0.0000008269, -0.0000143109, 0.0000151310, 0.0000050702, -0.0000078607, -0.0000147473, 0.0000159562, 0.0000034169, -0.0000026589, -0.0000165376, 0.0000135424, 0.0000041646, -0.0000048133, -0.0000141045, 0.0000168115, 0.0000086061, -0.0000069726, -0.0000139303, 0.0000149725, 0.0000000369, -0.0000015950, -0.0000155959, 0.0000136593, 0.0000090031, -0.0000088713, -0.0000098129, 0.0000131598, 0.0000013697, -0.0000019266, -0.0000152190, 0.0000151666, 0.0000088487, -0.0000081159, -0.0000131070, 0.0000140936, 0.0000034687, -0.0000049030, -0.0000156538, 0.0000160129, 0.0000039855, -0.0000058142, -0.0000164335, 0.0000184992, 0.0000068987, -0.0000060663, -0.0000156962, 0.0000123627, 0.0000012250, -0.0000033250, -0.0000108576, 0.0000145873, 0.0000029187, -0.0000041902, -0.0000153742, 0.0000165797, 0.0000049240, -0.0000022805, -0.0000135781, 0.0000122007, 0.0000050186, -0.0000076020, -0.0000158281, 0.0000184883, 0.0000047869, -0.0000033662, -0.0000117123, 0.0000095017, 0.0000046232, -0.0000057556, -0.0000132590, 0.0000150194, 0.0000050173, -0.0000035898, -0.0000144122, 0.0000168545, 0.0000051769, -0.0000002858, -0.0000130888, 0.0000102849, 0.0000098319, -0.0000070618, -0.0000127846, 0.0000170602, -0.0000005567, -0.0000056148, -0.0000130115, 0.0000136494, 0.0000037464, -0.0000041589, -0.0000142614, 0.0000151395, 0.0000083116, -0.0000082331, -0.0000145929, 0.0000151843, 0.0000033809, -0.0000074108, -0.0000128340, 0.0000153358, 0.0000096829, -0.0000072635, -0.0000137026, 0.0000131277, 0.0000024954, -0.0000045962, -0.0000135242, 0.0000115166, 0.0000057618, -0.0000088074, -0.0000131914, 0.0000163219, 0.0000072102, -0.0000055575, -0.0000180220, 0.0000161375, 0.0000044651, -0.0000066391, -0.0000130165, 0.0000128945, 0.0000076359, -0.0000066057, -0.0000131327, 0.0000138252, 0.0000048719, -0.0000058534, -0.0000150490, 0.0000140061, 0.0000078184, -0.0000062748, -0.0000128122, 0.0000156625, 0.0000056533, -0.0000086374, -0.0000155693, 0.0000133775, 0.0000075752, -0.0000057680, -0.0000119881, 0.0000157473, 0.0000049733, -0.0000076317, -0.0000152256, 0.0000151161, 0.0000107546, -0.0000091627, -0.0000127864, 0.0000160274, 0.0000033813, -0.0000075400, -0.0000145411, 0.0000122530, 0.0000104714, -0.0000075964, -0.0000147808, 0.0000153097, 0.0000104447, -0.0000117033, -0.0000122341, 0.0000154724, 0.0000057509, -0.0000049984, -0.0000126289, 0.0000137716, 0.0000077614, -0.0000098647, -0.0000144973, 0.0000123790, 0.0000033548, -0.0000046604, -0.0000138438, 0.0000167311, 0.0000105777, -0.0000087414, -0.0000151655, 0.0000147105, 0.0000070361, -0.0000066624, -0.0000110445, 0.0000105813, 0.0000056007, -0.0000056807, -0.0000165976, 0.0000182670, 0.0000097006, -0.0000103754, -0.0000129762, 0.0000153382, 0.0000070100, -0.0000034372, -0.0000134459, 0.0000144299, 0.0000096187, -0.0000101163, -0.0000145661, 0.0000147274, 0.0000079899, -0.0000092097, -0.0000105530, 0.0000111492, 0.0000065855, -0.0000035778, -0.0000167139, 0.0000172501, 0.0000089148, -0.0000092149, -0.0000130466, 0.0000160955, 0.0000061764, -0.0000073886, -0.0000147791, 0.0000158713, 0.0000054143, -0.0000074788, -0.0000134572, 0.0000145676, 0.0000105967, -0.0000102368, -0.0000155415, 0.0000152689, 0.0000058029, -0.0000049748, -0.0000153207, 0.0000167877, 0.0000098625, -0.0000104913, -0.0000141667, 0.0000110435, 0.0000068294, -0.0000067714, -0.0000138700, 0.0000151894, 0.0000093924, -0.0000073201, -0.0000127356, 0.0000135897, 0.0000064215, -0.0000101141, -0.0000118562, 0.0000132383, 0.0000080694, -0.0000043208, -0.0000147865, 0.0000148674, 0.0000078680, -0.0000101675, -0.0000148657, 0.0000139424, 0.0000031226, -0.0000072783, -0.0000131401, 0.0000165667, 0.0000112729, -0.0000108659, -0.0000155304, 0.0000129973, 0.0000038837, -0.0000060265, -0.0000122515, 0.0000163174, 0.0000103580, -0.0000075798, -0.0000137747, 0.0000136860, 0.0000092470, -0.0000094368, -0.0000138234, 0.0000116291, 0.0000052751, -0.0000074367, -0.0000126267, 0.0000124187, 0.0000088133, -0.0000101546, -0.0000164980, 0.0000156268, 0.0000052015, -0.0000070529, -0.0000152086, 0.0000130149, 0.0000127302, -0.0000123050, -0.0000152394, 0.0000133539, 0.0000083188, -0.0000064949, -0.0000137545, 0.0000150093, 0.0000078866, -0.0000102626, -0.0000150198, 0.0000140043, 0.0000111229, -0.0000070122, -0.0000118403, 0.0000146787, 0.0000032534, -0.0000075983, -0.0000178585, 0.0000148160, 0.0000103786, -0.0000097146, -0.0000100107, 0.0000135160, 0.0000055863, -0.0000084812, -0.0000128496, 0.0000135320, 0.0000013880, -0.0000067875, -0.0000142805, 0.0000122358, 0.0000128155, -0.0000123911, -0.0000132501, 0.0000134581, 0.0000062556, -0.0000054456, -0.0000133949, 0.0000130327, 0.0000114871, -0.0000091448, -0.0000120098, 0.0000144511, 0.0000089463, -0.0000102496, -0.0000158406, 0.0000176833, 0.0000065625, -0.0000078482, -0.0000122313, 0.0000114056, 0.0000090821, -0.0000110641, -0.0000160166, 0.0000189599, 0.0000070766, -0.0000065020, -0.0000123596, 0.0000117141, 0.0000102097, -0.0000110902, -0.0000145602, 0.0000158308, 0.0000069201, -0.0000075653, -0.0000117312, 0.0000100898, 0.0000092000, -0.0000095678, -0.0000142026, 0.0000121860, 0.0000105094, -0.0000081043, -0.0000137236, 0.0000161462, 0.0000092645, -0.0000087339, -0.0000123672, 0.0000111085, 0.0000116580, -0.0000142649, -0.0000126092, 0.0000155898, 0.0000083397, -0.0000076738, -0.0000105927, 0.0000124881, 0.0000093618, -0.0000074545, -0.0000119909, 0.0000127909, 0.0000074324, -0.0000112732, -0.0000120511, 0.0000129824, 0.0000076819, -0.0000072686, -0.0000121342, 0.0000083389, 0.0000125524, -0.0000118001, -0.0000136436, 0.0000175664, 0.0000064102, -0.0000077883, -0.0000115159, 0.0000098719, 0.0000088873, -0.0000069404, -0.0000106661, 0.0000139715, 0.0000136274, -0.0000121733, -0.0000087174, 0.0000114194, 0.0000068736, -0.0000102520, -0.0000093056, 0.0000103335, 0.0000119190, -0.0000099665, -0.0000137910, 0.0000138454, 0.0000108192, -0.0000089612, -0.0000134017, 0.0000136885, 0.0000080838, -0.0000087280, -0.0000109874, 0.0000121329, 0.0000116164, -0.0000101206, -0.0000086470, 0.0000117394, 0.0000085366, -0.0000132770, -0.0000138136, 0.0000088981, 0.0000060543, -0.0000064324, -0.0000105829, 0.0000127717, 0.0000097874, -0.0000101362, -0.0000109290, 0.0000117257, 0.0000098014, -0.0000072150, -0.0000136103, 0.0000147208, 0.0000089679, -0.0000121915, -0.0000097551, 0.0000068557, 0.0000099420, -0.0000090832, -0.0000105810, 0.0000123781, 0.0000101414, -0.0000083607, -0.0000119194, 0.0000113396, 0.0000108403, -0.0000124472, -0.0000092448, 0.0000097379, 0.0000112950, -0.0000100756, -0.0000103168, 0.0000089201, 0.0000070253, -0.0000073884, -0.0000094726, 0.0000124496, 0.0000116062, -0.0000108459, -0.0000118875, 0.0000107315, 0.0000113712, -0.0000108821, -0.0000114757, 0.0000106138, 0.0000065026, -0.0000066490, -0.0000118944, 0.0000163194, 0.0000137336, -0.0000129650, -0.0000124737, 0.0000132164, 0.0000093089, -0.0000083366, -0.0000110858, 0.0000117603, 0.0000134232, -0.0000133380, -0.0000101336, 0.0000099572, 0.0000081779, -0.0000090751, -0.0000109705, 0.0000095358, 0.0000117629, -0.0000099696, -0.0000096909, 0.0000118321, 0.0000090652, -0.0000131195, -0.0000113042, 0.0000120237, 0.0000097259, -0.0000106355, -0.0000097014, 0.0000097876, 0.0000142367, -0.0000118913, -0.0000096193, 0.0000095692, 0.0000061298, -0.0000093803, -0.0000136772, 0.0000135709, 0.0000137327, -0.0000096934, -0.0000120374, 0.0000105272, 0.0000088197, -0.0000122004, -0.0000092484, 0.0000119006, 0.0000104273, -0.0000064130, -0.0000090706, 0.0000106193, 0.0000092897, -0.0000127194, -0.0000139815, 0.0000120243, 0.0000080433, -0.0000097718, -0.0000113778, 0.0000116325, 0.0000105328, -0.0000112715, -0.0000087251, 0.0000120181, 0.0000084791, -0.0000104971, -0.0000096026, 0.0000115127, 0.0000081862, -0.0000092998, -0.0000088428, 0.0000088960, 0.0000143353, -0.0000131227, -0.0000113087, 0.0000141553, 0.0000051669, -0.0000062727, -0.0000116482, 0.0000133717, 0.0000122810, -0.0000117768, -0.0000080396, 0.0000101861, 0.0000055251, -0.0000061174, -0.0000150798, 0.0000121406, 0.0000111516, -0.0000138201, -0.0000069005, 0.0000123384, 0.0000098051, -0.0000082548, -0.0000117338, 0.0000090595, 0.0000078085, -0.0000099643, -0.0000121553, 0.0000128803, 0.0000105821, -0.0000083295, -0.0000052905, 0.0000080410, 0.0000072588, -0.0000069452, -0.0000086058, 0.0000106065, 0.0000104685, -0.0000135129, -0.0000097079, 0.0000088986, 0.0000122467, -0.0000074295, -0.0000105471, 0.0000101949, 0.0000075949, -0.0000106844, -0.0000097318, 0.0000143428, 0.0000093050, -0.0000066210, -0.0000083041, 0.0000066519, 0.0000088281, -0.0000126626, -0.0000098858, 0.0000152517, 0.0000106489, -0.0000108782, -0.0000091495, 0.0000054247, 0.0000059067, -0.0000101974, -0.0000077830, 0.0000132052, 0.0000085947, -0.0000113668, -0.0000141131, 0.0000124920, 0.0000073234, -0.0000103930, -0.0000073392, 0.0000073230, 0.0000129792, -0.0000095032, -0.0000085090, 0.0000122924, 0.0000108677, -0.0000089750, -0.0000113740, 0.0000067310, 0.0000109389, -0.0000129211, -0.0000085053, 0.0000103436, 0.0000074813, -0.0000090402, -0.0000106794, 0.0000098802, 0.0000099088, -0.0000082525, -0.0000060219, 0.0000086072, 0.0000133290, -0.0000111963, -0.0000127182, 0.0000136450, 0.0000083598, -0.0000099696, -0.0000090769, 0.0000087750, 0.0000077770, -0.0000087050, -0.0000088071, 0.0000064357, 0.0000108523, -0.0000086779, -0.0000050489, 0.0000084035, 0.0000067234, -0.0000082686, -0.0000111623, 0.0000118497, 0.0000088258, -0.0000115780, -0.0000104370, 0.0000082316, 0.0000051926, -0.0000108994, -0.0000083664, 0.0000042120, 0.0000096356, -0.0000090511, -0.0000081337, 0.0000110723, 0.0000102905, -0.0000105420, -0.0000068823, 0.0000075387, 0.0000078732, -0.0000071906, -0.0000145467, 0.0000121896, 0.0000073958, -0.0000067809, -0.0000054881, 0.0000072498, 0.0000077228, -0.0000098601, -0.0000108940, 0.0000098458, 0.0000070569, -0.0000090705, -0.0000065311, 0.0000056431, 0.0000126598, -0.0000114200, -0.0000087205, 0.0000096533, 0.0000096589, -0.0000090510, -0.0000084023, 0.0000076192, 0.0000121154, -0.0000086604, -0.0000084067, 0.0000086493, 0.0000069226, -0.0000106687, -0.0000101587, 0.0000079281, 0.0000034973, -0.0000069995, -0.0000086573, 0.0000081961, 0.0000086118, -0.0000090151, -0.0000082030, 0.0000105729, 0.0000055269, -0.0000079389, -0.0000071581, 0.0000097526, 0.0000103582, -0.0000112696, -0.0000079243, 0.0000092525, 0.0000079742, -0.0000059981, -0.0000120964, 0.0000124452, 0.0000081984, -0.0000105700, -0.0000075155, 0.0000084658, 0.0000100422, -0.0000116731, -0.0000090794, 0.0000074048, 0.0000072423, -0.0000079737, -0.0000058431, 0.0000079003, 0.0000093055, -0.0000134524, -0.0000096255, 0.0000104685, 0.0000097789, -0.0000084486, -0.0000068949, 0.0000063092, 0.0000120075, -0.0000145395, -0.0000090895, 0.0000093642, 0.0000053955, -0.0000047181, -0.0000097924, 0.0000063527, 0.0000100330, -0.0000116477, -0.0000076324, 0.0000084943, 0.0000069339, -0.0000087315, -0.0000070206, 0.0000090730, 0.0000066257, -0.0000076525, -0.0000070790, 0.0000082048, 0.0000093807, -0.0000084717, -0.0000088042, 0.0000079481, 0.0000076648, -0.0000084729, -0.0000070197, 0.0000062701, 0.0000087348, -0.0000084522, -0.0000089891, 0.0000109890, 0.0000103979, -0.0000058426, -0.0000054806, 0.0000064925, 0.0000063514, -0.0000084070, -0.0000074935, 0.0000095448, 0.0000104667, -0.0000126340, -0.0000040191, 0.0000058257, 0.0000063508, -0.0000037507, -0.0000080374, 0.0000087468, 0.0000076208, -0.0000098181, -0.0000050272, 0.0000056093, 0.0000065059, -0.0000087921, -0.0000057104, 0.0000082564, 0.0000048410, -0.0000056449, -0.0000077623, 0.0000095595, 0.0000100339, -0.0000107312, -0.0000096541, 0.0000074191, 0.0000073399, -0.0000057474, -0.0000044844, 0.0000079943, 0.0000087231, -0.0000071191, -0.0000032003, 0.0000036611, 0.0000078699, -0.0000108421, -0.0000090827, 0.0000135139, 0.0000068252, -0.0000069543, -0.0000076533, 0.0000075979, 0.0000100721, -0.0000127364, -0.0000077852, 0.0000057772, 0.0000072370, -0.0000074505, -0.0000061829, 0.0000096093, 0.0000079360, -0.0000093824, -0.0000072836, 0.0000063064, 0.0000087590, -0.0000076404, -0.0000095418, 0.0000109089, 0.0000061152, -0.0000073363, -0.0000033517, 0.0000073563, 0.0000056785, -0.0000090775, -0.0000094174, 0.0000072818, 0.0000104417, -0.0000073418, -0.0000056167, 0.0000104760, 0.0000111866, -0.0000079752, -0.0000023916, 0.0000069135, 0.0000069272, -0.0000100984, -0.0000028208, 0.0000083637, 0.0000085381, -0.0000061526, -0.0000050788, 0.0000030584, 0.0000070702, -0.0000099384, -0.0000039125, 0.0000053935, 0.0000061401, -0.0000090677, -0.0000065213, 0.0000071849, 0.0000107474, -0.0000068934, -0.0000098885, 0.0000070147, 0.0000056739, -0.0000111254, -0.0000065186, 0.0000067037, 0.0000042896, -0.0000080113, -0.0000101357, 0.0000070611, 0.0000095504, -0.0000071028, -0.0000047077, 0.0000098989, 0.0000075564, -0.0000078664, -0.0000079951, 0.0000081091, 0.0000082815, -0.0000084843, -0.0000085076, 0.0000057595, 0.0000070055, -0.0000099394, -0.0000085087, 0.0000097558, 0.0000037885, -0.0000079721, -0.0000081593, 0.0000058221, 0.0000098265, -0.0000100626, -0.0000075567, 0.0000054083, 0.0000097246, -0.0000077300, -0.0000088742, 0.0000091153, 0.0000089334, -0.0000054317, -0.0000069405, 0.0000038066, 0.0000057659, -0.0000109970, -0.0000069971, 0.0000088927, 0.0000092865, -0.0000067654, -0.0000050930, 0.0000068400, 0.0000049900, -0.0000102427, -0.0000064770, 0.0000078624, 0.0000095405, -0.0000058178, -0.0000073429, 0.0000074389, 0.0000080093, -0.0000087138, -0.0000081802, 0.0000064015, 0.0000051757, -0.0000053069, -0.0000056925, 0.0000104682, 0.0000085334, -0.0000114534, -0.0000057264, 0.0000073161, 0.0000079153, -0.0000072292, -0.0000048639, 0.0000085632, 0.0000106731, -0.0000064220, -0.0000018935, 0.0000024660, 0.0000060558, -0.0000104793, -0.0000091055, 0.0000061939, 0.0000054337, -0.0000076821, -0.0000031228, 0.0000056726, 0.0000079712, -0.0000076373, -0.0000030275, 0.0000055419, 0.0000067176, -0.0000087019, -0.0000062821, 0.0000073575, 0.0000069972, -0.0000069430, -0.0000056382, 0.0000042349, 0.0000030798, -0.0000077175, -0.0000098286, 0.0000082358, 0.0000097128, -0.0000055931, -0.0000066694, 0.0000062225, 0.0000092307, -0.0000115742, -0.0000047554, 0.0000045802, 0.0000045921, -0.0000037572, -0.0000088941, 0.0000054563, 0.0000080668, -0.0000116216, -0.0000042759, 0.0000017157, 0.0000078119, -0.0000052756, -0.0000065812, 0.0000085604, 0.0000100937, -0.0000082385, -0.0000045339, 0.0000048678, 0.0000042490, -0.0000033856, -0.0000091242, 0.0000083517, 0.0000096928, -0.0000094501, -0.0000070850, 0.0000047612, 0.0000096823, -0.0000080000, -0.0000079321, 0.0000038083, 0.0000038873, -0.0000086128, -0.0000051390, 0.0000090989, 0.0000067461, -0.0000106173, -0.0000065878, 0.0000056024, 0.0000072733, -0.0000061626, -0.0000075935, 0.0000083722, 0.0000090545, -0.0000070009, -0.0000049219, 0.0000043509, 0.0000069016, -0.0000063036, -0.0000057499, 0.0000056880, 0.0000080507, -0.0000070063, -0.0000061324, 0.0000011820, 0.0000064559, -0.0000011500, -0.0000054088, 0.0000112232, 0.0000095700, -0.0000088845, -0.0000095963, 0.0000067188, 0.0000043636, -0.0000049714, -0.0000031060, 0.0000029086, 0.0000102653, -0.0000105475, -0.0000073727, 0.0000052982, 0.0000078234, -0.0000084615, -0.0000037939, 0.0000036141, 0.0000069590, -0.0000041533, -0.0000067194, 0.0000055333, 0.0000063728, -0.0000107403, -0.0000053497, 0.0000076112, 0.0000036749, -0.0000057365, -0.0000065190, 0.0000065517, 0.0000092974, -0.0000081972, -0.0000064147, 0.0000080226, 0.0000046446, -0.0000078668, -0.0000060796, 0.0000049085, 0.0000096747, -0.0000088598, -0.0000079369, 0.0000092245, 0.0000067193, -0.0000119532, -0.0000087658, 0.0000070431, 0.0000044315, -0.0000055840, -0.0000063651, 0.0000043563, 0.0000080207, -0.0000068364, -0.0000059730, 0.0000070502, 0.0000027984, -0.0000084371, -0.0000029063, 0.0000077761, 0.0000085120, -0.0000048934, -0.0000049220, 0.0000015703, 0.0000036666, -0.0000051359, -0.0000066219, 0.0000082544, 0.0000080679, -0.0000065362, -0.0000017060, 0.0000032195, 0.0000030770, -0.0000067450, -0.0000094974, 0.0000086427, 0.0000072707, -0.0000042794, -0.0000038033, 0.0000100397, 0.0000113231, -0.0000092521, -0.0000040346, 0.0000005852, 0.0000041934, -0.0000069185, -0.0000059651, 0.0000103838, 0.0000067949, -0.0000099363, -0.0000020643, 0.0000029215, 0.0000041685, -0.0000050774, -0.0000069782, 0.0000066462, 0.0000061926, -0.0000085461, -0.0000027567, 0.0000044591, 0.0000076255, -0.0000086493, -0.0000045478, 0.0000040395, 0.0000051014, -0.0000029978, -0.0000090535, 0.0000085611, 0.0000076803, -0.0000088349, -0.0000026405, 0.0000020042, 0.0000083400, -0.0000032668, -0.0000039309, 0.0000078226, 0.0000051569, -0.0000060614, -0.0000038550, 0.0000046566, 0.0000066563, -0.0000072197, -0.0000048503, 0.0000006950, 0.0000077835, -0.0000060881, -0.0000075069, 0.0000079242, 0.0000069190, -0.0000069540, -0.0000028767, 0.0000074689, 0.0000062146, -0.0000052113, -0.0000095874, 0.0000057607, 0.0000091456, -0.0000075626, -0.0000030891, 0.0000044631, 0.0000049566, -0.0000060032, -0.0000049518, 0.0000080548, 0.0000091760, -0.0000082737, -0.0000044960, 0.0000021926, 0.0000071498, -0.0000079383, -0.0000060015, 0.0000049252, 0.0000074421, -0.0000060008, -0.0000053651, -0.0000003938, 0.0000059272, -0.0000111521, -0.0000028359, 0.0000047233, 0.0000077789, -0.0000053153, -0.0000052608, 0.0000068941, 0.0000068171, -0.0000070763, -0.0000055131, 0.0000030994, 0.0000035493, -0.0000081596, -0.0000052479, 0.0000026458, 0.0000074068, -0.0000079565, -0.0000054994, 0.0000041331, 0.0000043104, -0.0000088369, -0.0000059200, 0.0000033595, 0.0000069048, -0.0000069204, -0.0000072325, 0.0000096091, 0.0000062869, -0.0000068094, -0.0000039148, 0.0000036113, 0.0000067580, -0.0000074986, -0.0000051014, 0.0000059353, 0.0000078056, -0.0000098970, -0.0000010931, 0.0000045833, 0.0000036040, -0.0000040315, -0.0000057563, 0.0000044664, 0.0000097982, -0.0000107056, -0.0000040616, 0.0000043879, 0.0000041924, -0.0000051535, -0.0000065098, 0.0000063159, 0.0000074998, -0.0000079694, -0.0000017454, 0.0000065439, 0.0000058782, -0.0000018732, -0.0000058918, 0.0000061522, 0.0000059536, -0.0000066834, -0.0000069050, 0.0000061215, 0.0000107384, -0.0000095128, -0.0000033025, 0.0000032006, 0.0000032546, -0.0000063096, -0.0000059177, 0.0000091111, 0.0000090277, -0.0000083061, -0.0000042291, 0.0000011541, 0.0000072152, -0.0000062355, -0.0000061489, 0.0000064425, 0.0000075697, -0.0000093055, -0.0000016388, 0.0000061443, 0.0000061138, -0.0000083090, -0.0000051384, 0.0000055351, 0.0000076983, -0.0000039368, -0.0000042400, 0.0000041609, 0.0000077149, -0.0000039058, -0.0000006891, 0.0000035376, 0.0000098469, -0.0000072774, -0.0000043502, 0.0000082930, 0.0000050837, -0.0000064935, -0.0000049201, 0.0000009127, 0.0000080095, -0.0000087875, -0.0000060376, 0.0000072811, 0.0000047508, -0.0000074557, -0.0000004170, 0.0000047937, 0.0000068877, -0.0000056547, -0.0000040243, 0.0000064462, 0.0000075771, -0.0000028204, -0.0000033357, 0.0000041713, 0.0000071492, -0.0000060435, -0.0000041453, 0.0000040648, 0.0000064279, -0.0000054656, -0.0000094956, 0.0000064433, 0.0000066648, -0.0000045916, 0.0000012637, 0.0000046594, 0.0000084025, -0.0000072358, -0.0000059689, 0.0000069096, 0.0000050314, -0.0000054693, -0.0000035977, 0.0000057269, 0.0000032713, -0.0000087675, -0.0000073532, 0.0000045601, 0.0000092348, -0.0000057407, -0.0000074837, 0.0000034531, 0.0000028705, -0.0000019579, -0.0000034197, 0.0000024742, 0.0000060524, -0.0000028193, -0.0000060889, 0.0000064116, 0.0000062380, -0.0000083875, -0.0000064789, 0.0000072235, 0.0000046518, -0.0000064153, -0.0000057860, 0.0000039316, 0.0000079292, -0.0000092950, -0.0000039299, 0.0000057180, 0.0000050705, -0.0000072317, -0.0000034667, 0.0000036166, 0.0000099893, -0.0000072680, -0.0000065507, 0.0000024493, 0.0000049236, -0.0000076225, -0.0000053935, 0.0000070555, 0.0000061844, -0.0000055611, -0.0000034892, 0.0000022948, 0.0000071728, -0.0000085387, -0.0000025060, 0.0000080576, 0.0000038482, -0.0000020771, -0.0000044021, 0.0000012393, 0.0000080636, -0.0000053099, -0.0000040342, 0.0000020777, 0.0000035691, -0.0000047733, -0.0000067875, 0.0000026095, 0.0000060519, -0.0000051255, -0.0000019682, 0.0000031569, 0.0000034941, -0.0000090764, -0.0000072974, 0.0000053772, 0.0000014845, -0.0000031579, -0.0000023127, 0.0000061300, 0.0000076396, -0.0000071213, -0.0000040189, 0.0000013965, 0.0000030288, -0.0000057380, -0.0000070856, 0.0000059561, 0.0000071276, -0.0000044370, -0.0000045711, 0.0000000912, 0.0000078924, -0.0000072265, -0.0000035041, 0.0000057925, 0.0000024970, -0.0000036102, -0.0000041622, 0.0000031472, 0.0000103026, -0.0000081706, -0.0000066931, 0.0000073828, 0.0000017384, -0.0000050164, -0.0000056208, 0.0000028903, 0.0000033434, -0.0000044216, -0.0000036082, 0.0000069020, 0.0000061983, -0.0000091460, -0.0000032106, 0.0000059591, 0.0000068690, -0.0000038997, -0.0000024935, 0.0000028175, 0.0000075045, -0.0000083207, -0.0000071865, 0.0000031530, 0.0000052684, -0.0000054231, -0.0000047251, 0.0000073828, 0.0000059776, -0.0000096221, -0.0000059938, 0.0000034102, 0.0000043879, -0.0000061403, -0.0000025345, 0.0000073263, 0.0000031969, -0.0000078428, -0.0000066392, 0.0000035463, 0.0000082977, -0.0000042733, -0.0000016546, 0.0000023350, 0.0000055137, -0.0000062344, -0.0000033850, 0.0000045914, 0.0000035268, -0.0000092308, -0.0000052717, 0.0000052943, 0.0000065566, -0.0000041606, -0.0000031218, 0.0000062586, 0.0000042955, -0.0000044141, -0.0000036491, 0.0000037638, 0.0000075152, -0.0000110744, -0.0000054536, 0.0000023187, 0.0000062376, -0.0000062236, -0.0000013342, 0.0000030224, 0.0000055799, -0.0000031917, -0.0000011897, 0.0000062527, 0.0000052761, -0.0000076700, -0.0000046070, 0.0000038629, 0.0000055065, -0.0000048858, -0.0000046652, 0.0000012993, 0.0000055139, -0.0000082596, -0.0000060039, 0.0000086795, 0.0000038602, -0.0000033032, -0.0000012697, 0.0000024304, 0.0000018872, -0.0000056572, -0.0000072365, 0.0000036330, 0.0000026172, -0.0000072280, -0.0000036557, 0.0000046222, 0.0000081763, -0.0000033870, -0.0000038860, 0.0000021153, 0.0000031173, -0.0000071974, -0.0000053215, 0.0000043014, 0.0000059115, -0.0000051336, -0.0000039028, 0.0000026706, 0.0000045769, -0.0000073312, -0.0000056653, 0.0000038517, 0.0000020595, -0.0000033175, -0.0000062938, 0.0000041394, 0.0000086006, -0.0000053528, -0.0000018124, 0.0000018305, 0.0000053596, -0.0000063109, -0.0000051611, 0.0000077750, 0.0000055743, -0.0000043370, -0.0000033975, 0.0000007324, 0.0000047650, -0.0000050981, -0.0000046774, 0.0000012751, 0.0000060772, -0.0000024364, -0.0000044601, 0.0000041690, 0.0000053656, -0.0000096185, -0.0000041867, 0.0000049366, 0.0000059136, -0.0000051840, -0.0000049280, 0.0000034798, 0.0000035391, -0.0000098971, -0.0000041085, 0.0000031593, 0.0000021506, -0.0000028858, -0.0000046097, 0.0000078230, 0.0000060590, -0.0000078359, -0.0000038283, 0.0000037745, 0.0000071633, -0.0000056658, -0.0000032090, 0.0000047137, 0.0000074703, -0.0000038026, -0.0000035824, 0.0000043673, 0.0000071008, -0.0000077343, -0.0000051578, 0.0000054338, 0.0000038503, -0.0000051194, -0.0000012753, 0.0000074971, 0.0000094101, -0.0000073559, -0.0000052132, 0.0000025788, 0.0000051851, -0.0000041225, -0.0000017429, 0.0000044459, -0.0000003930, -0.0000056575, -0.0000046073, 0.0000075034, 0.0000049068, -0.0000063086, -0.0000028844, 0.0000002460, 0.0000039255, -0.0000075780, -0.0000019717, 0.0000018959, 0.0000078846, -0.0000061878, -0.0000045444, 0.0000068515, 0.0000058943, -0.0000027126, -0.0000032023, 0.0000045224, 0.0000026191, -0.0000061570, -0.0000068906, 0.0000054286, 0.0000038841, -0.0000011635, -0.0000048733, 0.0000058813, 0.0000105265, -0.0000068592, -0.0000025074, -0.0000008725, 0.0000065694, -0.0000066432, -0.0000080955, 0.0000049060, 0.0000040685, -0.0000062164, -0.0000049632, 0.0000062002, 0.0000071926, -0.0000063015, -0.0000021847, 0.0000059399, 0.0000032548, -0.0000000154, -0.0000044287, 0.0000043481, 0.0000075164, -0.0000057413, 0.0000010894, 0.0000009763, 0.0000024868, -0.0000028823, -0.0000046186, 0.0000079690, 0.0000032628, -0.0000062857, -0.0000018422, 0.0000005903, 0.0000060270, -0.0000044096, -0.0000049876, 0.0000055450, 0.0000007979, -0.0000057817, -0.0000073978, 0.0000035556, 0.0000049099, -0.0000036834, 0.0000014294, 0.0000047556, 0.0000026725, -0.0000024247, -0.0000040450, 0.0000061480, 0.0000064538, -0.0000092193, -0.0000002446, 0.0000027539, 0.0000050674, -0.0000068884, -0.0000065941, 0.0000052983, 0.0000059720, -0.0000043914, -0.0000039838, 0.0000035128, 0.0000046466, -0.0000096698, -0.0000029836, 0.0000049189, 0.0000087825, -0.0000039427, -0.0000038199, 0.0000059511, 0.0000073436, -0.0000088987, -0.0000029023, 0.0000011020, 0.0000095056, -0.0000053054, -0.0000072297, 0.0000033373, 0.0000024013, -0.0000047213, -0.0000017421, 0.0000053814, 0.0000051210, -0.0000038149, -0.0000017323, 0.0000049281, 0.0000022715, -0.0000058250, -0.0000070530, 0.0000058166, 0.0000084096, -0.0000050583, -0.0000011376, 0.0000049836, 0.0000054791, -0.0000062274, -0.0000029160, 0.0000051528, 0.0000039854, -0.0000073819, -0.0000068979, 0.0000012977, 0.0000086833, -0.0000054165, 0.0000008854, 0.0000017355, 0.0000044637, -0.0000026623, -0.0000069649, 0.0000049435, 0.0000035205, -0.0000027078, -0.0000014604, 0.0000053619, 0.0000074230, -0.0000033144, 0.0000005352, 0.0000035318, 0.0000037074, -0.0000046808, -0.0000074201, 0.0000037047, 0.0000060305, -0.0000045705, 0.0000015424, 0.0000027641, 0.0000054886, -0.0000027033, -0.0000073780, 0.0000034253, 0.0000032063, -0.0000097450, -0.0000023632, 0.0000029692, 0.0000057725, -0.0000013724, -0.0000038188, 0.0000031517, 0.0000055805, -0.0000051027, -0.0000062796, 0.0000065949, 0.0000056004, -0.0000052453, -0.0000009082, 0.0000014590, 0.0000021116, -0.0000031971, -0.0000046891, 0.0000051796, 0.0000066601, -0.0000086785, -0.0000018888, 0.0000018820, 0.0000067769, -0.0000083990, -0.0000029183, 0.0000051322, 0.0000014696, -0.0000039744, -0.0000040059, 0.0000037990, 0.0000074507, -0.0000083785, -0.0000040971, 0.0000032132, 0.0000008883, 0.0000012979, -0.0000024795, 0.0000060916, 0.0000062267, -0.0000050074, -0.0000026906, 0.0000011726, 0.0000028714, -0.0000073104, -0.0000060493, 0.0000037231, 0.0000044702, -0.0000039439, -0.0000015254, 0.0000026298, 0.0000043274, -0.0000082061, -0.0000039383, 0.0000064745, 0.0000035478, 0.0000001788, -0.0000046644, 0.0000044042, 0.0000055422, -0.0000064605, -0.0000006350, 0.0000038036, 0.0000007587, -0.0000022237, -0.0000101019, 0.0000081076, 0.0000024513, -0.0000062843, -0.0000004691, 0.0000045098, 0.0000073294, -0.0000036388, -0.0000051429, 0.0000056751, 0.0000008420, -0.0000044545, -0.0000055690, 0.0000050998, 0.0000059664, -0.0000046803, -0.0000025185, 0.0000024142, 0.0000042249, -0.0000035851, -0.0000047877, 0.0000048629, 0.0000052260, -0.0000068529, -0.0000057718, 0.0000038172, 0.0000080981, -0.0000058190, -0.0000008219, 0.0000019018, 0.0000038897, -0.0000056745, -0.0000033664, 0.0000026590, 0.0000083035, -0.0000051228, -0.0000041637, 0.0000047056, 0.0000034617, -0.0000035566, -0.0000025167, 0.0000029436, 0.0000040601, -0.0000073289, -0.0000049406, 0.0000025030, 0.0000065751, -0.0000020767, -0.0000040384, 0.0000045244, 0.0000018262, -0.0000039708, -0.0000017143, 0.0000004417, -0.0000008463, -0.0000055680, -0.0000054160, 0.0000071665, 0.0000035877, -0.0000034156, -0.0000041659, 0.0000041262, 0.0000063141, -0.0000056462, -0.0000024270, 0.0000042280, 0.0000033932, -0.0000029456, -0.0000035882, 0.0000053088, 0.0000061100, -0.0000052613, -0.0000029114, 0.0000026549, 0.0000039784, -0.0000063920, -0.0000052615, 0.0000016735, 0.0000058890, -0.0000035604, -0.0000044889, 0.0000026673, 0.0000011468, -0.0000044379, -0.0000043976, 0.0000022267, 0.0000038618, -0.0000057475, -0.0000074110, 0.0000036817, 0.0000068497, -0.0000063879, 0.0000022350, 0.0000032486, 0.0000034149, -0.0000079220, -0.0000042908, 0.0000032627, 0.0000089154, -0.0000071014, -0.0000032622, 0.0000073429, 0.0000022576, -0.0000059615, -0.0000028208, 0.0000050849, 0.0000037612, -0.0000056783, -0.0000006162, 0.0000027747, 0.0000069543, -0.0000075167, -0.0000038148, 0.0000038981, 0.0000037043, -0.0000036844, -0.0000077644, 0.0000045533, 0.0000060871, -0.0000043454, -0.0000029976, 0.0000025684, 0.0000038898, -0.0000010966, -0.0000028710, 0.0000080454, 0.0000058725, -0.0000090255, -0.0000008957, 0.0000038299, 0.0000024714, -0.0000036775, -0.0000026949, 0.0000047042, 0.0000053482, -0.0000054674, -0.0000053915, 0.0000067368, 0.0000075351, -0.0000069942, -0.0000036304, 0.0000034435, 0.0000052148, -0.0000050877, -0.0000037764, 0.0000055034, 0.0000054351, -0.0000089002, -0.0000005950, 0.0000033972, 0.0000046074, -0.0000067355, -0.0000044612, 0.0000077042, 0.0000057659, -0.0000028475, -0.0000022284, 0.0000014057, 0.0000016255, -0.0000043183, -0.0000046760, 0.0000043161, 0.0000047028, -0.0000059728, -0.0000021753, 0.0000033189, 0.0000059147, -0.0000046570, -0.0000023837, 0.0000022842, 0.0000038212, -0.0000068574, -0.0000059556, 0.0000027293, 0.0000045297, -0.0000021979, -0.0000025693, 0.0000035496, 0.0000066396, -0.0000016981, -0.0000027175, 0.0000074670, 0.0000028800, -0.0000082598, -0.0000037423, -0.0000013150, 0.0000045877, -0.0000025714, -0.0000036600, 0.0000035470, 0.0000035633, -0.0000082703, -0.0000047111, 0.0000055197, 0.0000060921, -0.0000023750, -0.0000045943, 0.0000038178, 0.0000079964, -0.0000031863, -0.0000020433, 0.0000037344, -0.0000006085, -0.0000038092, 0.0000002358, 0.0000026766, 0.0000063663, -0.0000066651, -0.0000111922, 0.0000067003, 0.0000027639, -0.0000046961, 0.0000019302, 0.0000051762, 0.0000051571, -0.0000057787, -0.0000012749, 0.0000010511, 0.0000018168, -0.0000009321, -0.0000005448, 0.0000053156, 0.0000050085, -0.0000044918, -0.0000017997, 0.0000008730, 0.0000030518, -0.0000028102, -0.0000058851, 0.0000045907, 0.0000028559, -0.0000092821, -0.0000010057, 0.0000016273, 0.0000049974, -0.0000043418, -0.0000052916, 0.0000037201, 0.0000035920, -0.0000031623, -0.0000049206, 0.0000049445, 0.0000043137, -0.0000033634, -0.0000043184, 0.0000049188, 0.0000044684, -0.0000025363, -0.0000035028, 0.0000090213, 0.0000096900, -0.0000076285, -0.0000033935, 0.0000029741, 0.0000063822, -0.0000002191, -0.0000016709, 0.0000044849, 0.0000051756, -0.0000100829, -0.0000075506, 0.0000063830, 0.0000020413, -0.0000031863, -0.0000026586, -0.0000006710, 0.0000007629, -0.0000031704, -0.0000038913, 0.0000076953, 0.0000056819, -0.0000032498, -0.0000063182, 0.0000025226, 0.0000026555, -0.0000025406, -0.0000027897, 0.0000015064, 0.0000073100, -0.0000062963, -0.0000058940, 0.0000074014, 0.0000052614, -0.0000040699, 0.0000015512, 0.0000046784, 0.0000041255, -0.0000061504, -0.0000070170, 0.0000058026, 0.0000050978, -0.0000074643, -0.0000017780, 0.0000002856, 0.0000012015, -0.0000044752, -0.0000018975, 0.0000047600, -0.0000004534, -0.0000056132, -0.0000019478, 0.0000072764, 0.0000034707, -0.0000013032, 0.0000013608, 0.0000012409, 0.0000050951, -0.0000072161, -0.0000050092, 0.0000085267, 0.0000070363, -0.0000054349, -0.0000003877, 0.0000003815, 0.0000034630, -0.0000024877, -0.0000020677, 0.0000048772, 0.0000065220, -0.0000064712, -0.0000089361, 0.0000053352, 0.0000027599, -0.0000027683, -0.0000014471, -0.0000001636, 0.0000055271, -0.0000063125, -0.0000054303, 0.0000028815, 0.0000037637, -0.0000012985, -0.0000041045, 0.0000035416, 0.0000068387, -0.0000034381, -0.0000026566, 0.0000008456, 0.0000038759, -0.0000042169, -0.0000041022, 0.0000010194, 0.0000060075, -0.0000008826, 0.0000010041, 0.0000041772, 0.0000040423, -0.0000022495, -0.0000052809, 0.0000040152, 0.0000058748, -0.0000107014, -0.0000004341, 0.0000045144, 0.0000014694, -0.0000017136, -0.0000008672, 0.0000015146, 0.0000036218, -0.0000000027, -0.0000021344, 0.0000045586, 0.0000046392, -0.0000064643, -0.0000042163, 0.0000034816, 0.0000020986, -0.0000031261, -0.0000015385, 0.0000026392, 0.0000036924, -0.0000075791, -0.0000036208, 0.0000048376, 0.0000018147, -0.0000055761, -0.0000026034, 0.0000009054, 0.0000037050, -0.0000037653, 0.0000021242, 0.0000039422, 0.0000078520, -0.0000018516, -0.0000066679, 0.0000032470, 0.0000037319, -0.0000043771, -0.0000023413, 0.0000037599, 0.0000044247, -0.0000048312, -0.0000054274, 0.0000081786, 0.0000061724, -0.0000040014, -0.0000003442, 0.0000030206, 0.0000033188, -0.0000050286, -0.0000048926, 0.0000024027, 0.0000054248, -0.0000064134, -0.0000054891, 0.0000016275, 0.0000037486, -0.0000081120, 0.0000008932, 0.0000027961, 0.0000026748, -0.0000008353, -0.0000053334, 0.0000028118, 0.0000068268, -0.0000026262, -0.0000046120, 0.0000027268, 0.0000068244, -0.0000041020, -0.0000019750, 0.0000056404, 0.0000029197, -0.0000033213, -0.0000042682, 0.0000001737, 0.0000069936, -0.0000102333, -0.0000040460, 0.0000047464, 0.0000004447, -0.0000016262, -0.0000078252, 0.0000034746, 0.0000031369, -0.0000052713, 0.0000007662, 0.0000011346, 0.0000066212, -0.0000076771, -0.0000039983, 0.0000016893, 0.0000045386, -0.0000017283, -0.0000047070, 0.0000049660, 0.0000029351, -0.0000032902, -0.0000052674, 0.0000008940, 0.0000021080, -0.0000004465, -0.0000060727, 0.0000039108, 0.0000031402, -0.0000058274, -0.0000011140, 0.0000011450, 0.0000025302, -0.0000035687, -0.0000067214, 0.0000034035, 0.0000031081, -0.0000064471, -0.0000003355, 0.0000055112, 0.0000018947, -0.0000035066, -0.0000031226, 0.0000056075, 0.0000038370, -0.0000046165, -0.0000004868, 0.0000037811, 0.0000081726, -0.0000049100, -0.0000015920, 0.0000061919, 0.0000018633, -0.0000035871, -0.0000036852, 0.0000052241, 0.0000009924, -0.0000059221, -0.0000006553, 0.0000030174, 0.0000071200, -0.0000032176, -0.0000046954, 0.0000046239, 0.0000021954, -0.0000042198, 0.0000005089, -0.0000009771, 0.0000036022, -0.0000006900, -0.0000052298, 0.0000078775, 0.0000052892, -0.0000051182, -0.0000007889, 0.0000002506, 0.0000054807, -0.0000014599, -0.0000023902, -0.0000013496, 0.0000051781, -0.0000032358, -0.0000076925, 0.0000038150, 0.0000023306, -0.0000021838, -0.0000029301, 0.0000026006, 0.0000027979, -0.0000057670, -0.0000053685, 0.0000035155, 0.0000037142, -0.0000071154, -0.0000054055, 0.0000017452, 0.0000056092, -0.0000002178, -0.0000036764, 0.0000073712, 0.0000042016, -0.0000034368, -0.0000074419, 0.0000049851, 0.0000050426, -0.0000054585, -0.0000044987, 0.0000034201, 0.0000044654, -0.0000014511, -0.0000057516, 0.0000011935, 0.0000047103, -0.0000045537, -0.0000020728, 0.0000009001, 0.0000043831, -0.0000096961, -0.0000067050, 0.0000072164, 0.0000025613, -0.0000036885, -0.0000010334, 0.0000022095, 0.0000077991, -0.0000045860, -0.0000034940, 0.0000046719, 0.0000040181, -0.0000000388, -0.0000007635, 0.0000052973, 0.0000085198, -0.0000076478, -0.0000057163, 0.0000027306, 0.0000060323, -0.0000039166, -0.0000039189, 0.0000032171, -0.0000000406, -0.0000049498, -0.0000018995, 0.0000033041, 0.0000055687, -0.0000070015, -0.0000069844, 0.0000076393, 0.0000004826, -0.0000028280, -0.0000022121, -0.0000013622, 0.0000056213, -0.0000057315, -0.0000064184, 0.0000071697, -0.0000003184, -0.0000026156, -0.0000061507, 0.0000039803, 0.0000036221, -0.0000042329, -0.0000021740, 0.0000038699, 0.0000068058, -0.0000032247, -0.0000049564, 0.0000029870, 0.0000012759, -0.0000063574, -0.0000049358, 0.0000024242, 0.0000088497, -0.0000034192, -0.0000026199, 0.0000055488, 0.0000021874, -0.0000037085, -0.0000000567, 0.0000045763, 0.0000078469, -0.0000057240, -0.0000011744, 0.0000063115, 0.0000052130, -0.0000044785, -0.0000061572, 0.0000043745, 0.0000056707, -0.0000048459, -0.0000035696, 0.0000040277, 0.0000046909, -0.0000040209, -0.0000027993, 0.0000018950, 0.0000068231, -0.0000016376, -0.0000059256, 0.0000036515, 0.0000038378, -0.0000063211, -0.0000057483, 0.0000037463, 0.0000047493, -0.0000064940, -0.0000036618, 0.0000008256, 0.0000018471, -0.0000008718, -0.0000035794, 0.0000021154, 0.0000046062, -0.0000088162, -0.0000047000, -0.0000002398, 0.0000013106, -0.0000017165, -0.0000051385, 0.0000061661, 0.0000073640, -0.0000067646, -0.0000026784, -0.0000024925, 0.0000040054, -0.0000012629, -0.0000034059, 0.0000044943, 0.0000015556, -0.0000062376, -0.0000040178, 0.0000034749, 0.0000060472, -0.0000038326, -0.0000018543, 0.0000011995, 0.0000019440, -0.0000017472, -0.0000046080, 0.0000045334, 0.0000043346, -0.0000035236, -0.0000010787, 0.0000049631, 0.0000042439, -0.0000018161, -0.0000029857, 0.0000038568, 0.0000053699, -0.0000020298, -0.0000049888, 0.0000060166, 0.0000022908, -0.0000035267, -0.0000042973, 0.0000063454, 0.0000041430, -0.0000075033, 0.0000004362, 0.0000021360, 0.0000023040, -0.0000002813, -0.0000070087, 0.0000032290, 0.0000052938, -0.0000070952, 0.0000008070, -0.0000023266, 0.0000025175, 0.0000005816, -0.0000055618, 0.0000024499, 0.0000069015, -0.0000047216, -0.0000031298, 0.0000030320, 0.0000064092, -0.0000031698, -0.0000038746, 0.0000060042, 0.0000007088, -0.0000037092, -0.0000024231, 0.0000029817, 0.0000073334, -0.0000065966, -0.0000013242, 0.0000040076, 0.0000054684, -0.0000047197, -0.0000028538, 0.0000049580, 0.0000029662, -0.0000026452, -0.0000057427, 0.0000019348, 0.0000041872, -0.0000062210, -0.0000043716, 0.0000017611, 0.0000024029, -0.0000022768, -0.0000040415, 0.0000015740, 0.0000023861, -0.0000045836, -0.0000035846, 0.0000041475, 0.0000054726, -0.0000041971, -0.0000039282, 0.0000017173, 0.0000059886, -0.0000040524, -0.0000023317, 0.0000027645, 0.0000049882, -0.0000064238, -0.0000016208, 0.0000009746, 0.0000038668, -0.0000035021, -0.0000061016, 0.0000025209, 0.0000007928, -0.0000061352, -0.0000025662, -0.0000010023, 0.0000065506, -0.0000043221, -0.0000032355, 0.0000027644, 0.0000018810, -0.0000015439, -0.0000024049, 0.0000063999, 0.0000046581, -0.0000036717, -0.0000030685, -0.0000038801, 0.0000049669, -0.0000083010, -0.0000082329, 0.0000061772, 0.0000061320, -0.0000050674, 0.0000023708, 0.0000013409, 0.0000041085, -0.0000038439, -0.0000041589, 0.0000044100, 0.0000056987, -0.0000064317, -0.0000065139, 0.0000066475, 0.0000021816, -0.0000032606, -0.0000020695, 0.0000029948, 0.0000026452, -0.0000059059, -0.0000019091, 0.0000047480, 0.0000034973, -0.0000044541, -0.0000003478, 0.0000026186, 0.0000014193, -0.0000057533, -0.0000069487, 0.0000040818, 0.0000065625, -0.0000099239, -0.0000022515, 0.0000057396, 0.0000051322, 0.0000014319, -0.0000049794, 0.0000066956, 0.0000050320, -0.0000051431, -0.0000042592, 0.0000031518, -0.0000016338, -0.0000021045, -0.0000015121, 0.0000047138, 0.0000061091, -0.0000082013, -0.0000014669, 0.0000044611, 0.0000009097, -0.0000002196, -0.0000045532, 0.0000049765, 0.0000084865, -0.0000081001};
#endif

#endif
